{
    "layers": [
        [
            {
                "bias": 0.6041578054428101,
                "weights": [
                    0.3646053075790405,
                    2.2428653240203857,
                    -1.5770068168640137,
                    2.028057336807251,
                    3.0144524574279785,
                    1.9026219844818115,
                    0.6467181444168091,
                    1.1429085731506348,
                    -0.5519914627075195,
                    -0.8670408725738525,
                    1.7915107011795044,
                    0.9651520252227783,
                    2.0756053924560547,
                    -2.577397346496582,
                    1.6546056270599365,
                    1.3750381469726563,
                    -0.8532822728157043,
                    1.4389662742614746,
                    0.9054992198944092,
                    2.1192495822906494,
                    4.780254364013672,
                    1.7372386455535889,
                    -0.11819827556610107,
                    1.3093602657318115,
                    1.0723270177841187,
                    -0.736779510974884,
                    0.042290568351745605,
                    -0.5829710960388184,
                    1.472583532333374,
                    -0.5902513265609741,
                    0.9222644567489624,
                    0.6163425445556641,
                    0.7453181743621826,
                    2.379549741744995,
                    2.051945924758911,
                    1.3654937744140625,
                    4.952406883239746,
                    0.9848926067352295,
                    1.2494850158691406,
                    -0.20146432518959045,
                    1.4879932403564453,
                    0.03355216979980469,
                    2.3354177474975586,
                    2.529446840286255,
                    2.350081443786621,
                    0.2665121555328369,
                    1.6964976787567139,
                    2.2759523391723633,
                    1.2723350524902344,
                    -1.3637017011642456,
                    0.23865866661071777,
                    2.705625295639038,
                    3.2943239212036133,
                    1.3928616046905518,
                    2.978982925415039,
                    -0.022874832153320313,
                    1.5742990970611572,
                    0.4289221465587616,
                    0.8643016815185547,
                    2.2111756801605225
                ]
            },
            {
                "bias": 0.34226125478744507,
                "weights": [
                    2.0094871520996094,
                    6.067930221557617,
                    -2.6280877590179443,
                    -0.3858889937400818,
                    2.6381630897521973,
                    -1.6239049434661865,
                    2.7307424545288086,
                    1.5140293836593628,
                    -0.6212061047554016,
                    1.2211158275604248,
                    1.0864936113357544,
                    1.5455917119979858,
                    0.5959278345108032,
                    1.412907361984253,
                    1.3543413877487183,
                    5.495685577392578,
                    2.4603347778320313,
                    5.810938835144043,
                    -2.388209819793701,
                    -1.6783018112182617,
                    1.6319756507873535,
                    -0.5653625130653381,
                    2.0296859741210938,
                    0.4937274754047394,
                    0.9224535226821899,
                    1.2357332706451416,
                    0.18233919143676758,
                    2.825148105621338,
                    -1.7219038009643555,
                    0.5218786001205444,
                    0.356941282749176,
                    4.113062858581543,
                    2.8237357139587402,
                    6.635183334350586,
                    0.604961097240448,
                    -1.9140244722366333,
                    2.524106502532959,
                    0.475755512714386,
                    2.442493200302124,
                    -1.1785705089569092,
                    0.0006934702396392822,
                    1.212738037109375,
                    0.7159435749053955,
                    1.7336376905441284,
                    -0.5682843923568726,
                    1.6388826370239258,
                    0.4524438977241516,
                    3.717531204223633,
                    0.7390704154968262,
                    0.883886992931366,
                    -0.9123150110244751,
                    2.925416946411133,
                    2.56992506980896,
                    0.8394500017166138,
                    2.470076560974121,
                    -1.1911377906799316,
                    -0.6975233554840088,
                    -1.8893420696258545,
                    -0.15499159693717957,
                    0.45087558031082153
                ]
            },
            {
                "bias": 0.4407150447368622,
                "weights": [
                    2.0307841300964355,
                    -0.041475147008895874,
                    0.3051093816757202,
                    2.2346510887145996,
                    2.5551040172576904,
                    0.0759495198726654,
                    -0.4672400653362274,
                    1.6504011154174805,
                    0.6448062658309937,
                    0.9074532985687256,
                    1.803650140762329,
                    2.0331523418426514,
                    1.42100191116333,
                    1.1317298412322998,
                    1.1320180892944336,
                    3.2354934215545654,
                    1.0724670886993408,
                    -0.22755664587020874,
                    -1.4204521179199219,
                    2.6117138862609863,
                    1.181077241897583,
                    0.2042146623134613,
                    2.803745746612549,
                    0.8873725533485413,
                    -0.893403947353363,
                    0.11602145433425903,
                    -0.3337630033493042,
                    3.4243125915527344,
                    0.8467091917991638,
                    2.30210018157959,
                    1.0615196228027344,
                    -0.119060218334198,
                    0.6679987907409668,
                    0.10368740558624268,
                    0.2689773440361023,
                    2.6255784034729004,
                    1.6783411502838135,
                    0.829757809638977,
                    2.2770612239837646,
                    0.4634627401828766,
                    -0.5040450692176819,
                    1.6270275115966797,
                    0.7981593608856201,
                    1.1110916137695313,
                    -0.19610381126403809,
                    -0.35652661323547363,
                    1.1627225875854492,
                    2.379809856414795,
                    0.8232911229133606,
                    -0.020670980215072632,
                    1.1449100971221924,
                    0.9068434238433838,
                    1.1822478771209717,
                    0.976676344871521,
                    2.2952983379364014,
                    -0.07084062695503235,
                    0.3514414429664612,
                    2.0078513622283936,
                    0.15501603484153748,
                    1.8922853469848633
                ]
            }
        ],
        [
            {
                "bias": 4.4243974685668945,
                "weights": [
                    -1.5251575708389282,
                    1.8009839057922363,
                    2.561910629272461
                ]
            },
            {
                "bias": -0.10575851798057556,
                "weights": [
                    2.7927134037017822,
                    2.3055713176727295,
                    0.5313743352890015
                ]
            },
            {
                "bias": 0.5045574307441711,
                "weights": [
                    1.8007878065109253,
                    0.8469160795211792,
                    0.14628663659095764
                ]
            },
            {
                "bias": -0.06480371952056885,
                "weights": [
                    -0.7368724346160889,
                    2.0313668251037598,
                    0.1326189935207367
                ]
            },
            {
                "bias": 0.27913498878479004,
                "weights": [
                    4.687943458557129,
                    1.7570745944976807,
                    1.727426528930664
                ]
            }
        ],
        [
            {
                "bias": -0.9577272534370422,
                "weights": [
                    2.276984691619873,
                    0.009270668029785156,
                    5.599520683288574,
                    1.8786613941192627,
                    -0.32043084502220154
                ]
            },
            {
                "bias": 2.403679847717285,
                "weights": [
                    1.8551025390625,
                    -0.9375793933868408,
                    2.1836960315704346,
                    -3.627612352371216,
                    -4.138181686401367
                ]
            }
        ]
    ],
    "random": 0.1,
    "score": 2164
}