{
    "layers": [
        [
            {
                "bias": 0.6343691349029541,
                "weights": [
                    0.3892025053501129,
                    2.1971514225006104,
                    -1.5707554817199707,
                    1.9997550249099731,
                    3.003540515899658,
                    1.8692811727523804,
                    0.6367146372795105,
                    1.2335429191589355,
                    -0.5514489412307739,
                    -0.851128339767456,
                    1.7487435340881348,
                    0.8929824829101563,
                    2.067276954650879,
                    -2.5843985080718994,
                    1.6234893798828125,
                    1.4528396129608154,
                    -0.8144399523735046,
                    1.4202033281326294,
                    0.9716728329658508,
                    2.171596050262451,
                    4.774516582489014,
                    1.7476598024368286,
                    -0.12498706579208374,
                    1.300201654434204,
                    1.0845295190811157,
                    -0.7864399552345276,
                    0.10584229230880737,
                    -0.5657419562339783,
                    1.5550062656402588,
                    -0.6103532910346985,
                    0.9697050452232361,
                    0.6233624815940857,
                    0.7695024013519287,
                    2.3332419395446777,
                    2.040663719177246,
                    1.3887661695480347,
                    4.982758045196533,
                    1.0536068677902222,
                    1.2633917331695557,
                    -0.16057057678699493,
                    1.4726201295852661,
                    0.004691627342253923,
                    2.414141893386841,
                    2.6057450771331787,
                    2.3042197227478027,
                    0.20412009954452515,
                    1.7605974674224854,
                    2.27893328666687,
                    1.2911800146102905,
                    -1.3434282541275024,
                    0.1939857006072998,
                    2.6187329292297363,
                    3.3250184059143066,
                    1.4413998126983643,
                    2.992931842803955,
                    0.020022278651595116,
                    1.673176884651184,
                    0.39642268419265747,
                    0.8244279026985168,
                    2.2924764156341553
                ]
            },
            {
                "bias": 0.3896598815917969,
                "weights": [
                    2.0170540809631348,
                    6.05625057220459,
                    -2.6465048789978027,
                    -0.4246303141117096,
                    2.7052011489868164,
                    -1.6190496683120728,
                    2.7323522567749023,
                    1.5397818088531494,
                    -0.602444052696228,
                    1.2636195421218872,
                    1.1068726778030396,
                    1.53549325466156,
                    0.6071555614471436,
                    1.4095849990844727,
                    1.4083813428878784,
                    5.544520854949951,
                    2.411112070083618,
                    5.857959270477295,
                    -2.4205288887023926,
                    -1.6972510814666748,
                    1.634323239326477,
                    -0.5745742917060852,
                    2.031431198120117,
                    0.5446134209632874,
                    0.9171905517578125,
                    1.180375576019287,
                    0.2321029156446457,
                    2.887385845184326,
                    -1.7171351909637451,
                    0.5429428219795227,
                    0.3765774965286255,
                    4.025398254394531,
                    2.833120346069336,
                    6.626402854919434,
                    0.578555166721344,
                    -1.9376018047332764,
                    2.5201809406280518,
                    0.44095948338508606,
                    2.4546680450439453,
                    -1.1637340784072876,
                    -0.0015989216044545174,
                    1.2352920770645142,
                    0.7106813788414001,
                    1.7525728940963745,
                    -0.5390527844429016,
                    1.5876604318618774,
                    0.520214855670929,
                    3.7975399494171143,
                    0.7348688244819641,
                    0.919338583946228,
                    -0.9612553715705872,
                    2.9135630130767822,
                    2.4961647987365723,
                    0.8022549748420715,
                    2.509108304977417,
                    -1.1701608896255493,
                    -0.6900760531425476,
                    -1.9005464315414429,
                    -0.1717771589756012,
                    0.45309144258499146
                ]
            },
            {
                "bias": 0.45057493448257446,
                "weights": [
                    2.1236348152160645,
                    -0.016923895105719566,
                    0.32435381412506104,
                    2.2287209033966064,
                    2.5532493591308594,
                    0.07161656022071838,
                    -0.48709604144096375,
                    1.6137503385543823,
                    0.6426482200622559,
                    0.9024336934089661,
                    1.8747069835662842,
                    2.0635483264923096,
                    1.4207202196121216,
                    1.2117221355438232,
                    1.0816454887390137,
                    3.283989667892456,
                    1.1202304363250732,
                    -0.2979201674461365,
                    -1.3761576414108276,
                    2.594928741455078,
                    1.161773443222046,
                    0.23665516078472137,
                    2.8032004833221436,
                    0.9308736324310303,
                    -0.9219314455986023,
                    0.1364530473947525,
                    -0.2928146719932556,
                    3.3845808506011963,
                    0.8503552079200745,
                    2.345264434814453,
                    1.0416479110717773,
                    -0.12256356328725815,
                    0.6357141733169556,
                    0.11305993050336838,
                    0.25954365730285645,
                    2.5914392471313477,
                    1.6733806133270264,
                    0.8004681468009949,
                    2.3062713146209717,
                    0.45634424686431885,
                    -0.528354287147522,
                    1.617294430732727,
                    0.7314367294311523,
                    1.0865007638931274,
                    -0.2158445417881012,
                    -0.3736216127872467,
                    1.1766277551651,
                    2.3978323936462402,
                    0.8258326053619385,
                    0.03752868250012398,
                    1.146147608757019,
                    0.9900810718536377,
                    1.1728880405426025,
                    0.9773685336112976,
                    2.312037229537964,
                    0.0012720216764137149,
                    0.37256523966789246,
                    1.9655383825302124,
                    0.1973968744277954,
                    1.9070552587509155
                ]
            }
        ],
        [
            {
                "bias": 4.3352484703063965,
                "weights": [
                    -1.5126487016677856,
                    1.8122502565383911,
                    2.5504772663116455
                ]
            },
            {
                "bias": -0.18387706577777863,
                "weights": [
                    2.794546365737915,
                    2.3499984741210938,
                    0.5582953691482544
                ]
            },
            {
                "bias": 0.4771006107330322,
                "weights": [
                    1.7844252586364746,
                    0.8567185997962952,
                    0.09452063590288162
                ]
            },
            {
                "bias": -0.08089935034513474,
                "weights": [
                    -0.7937925457954407,
                    2.0450098514556885,
                    0.08678265661001205
                ]
            },
            {
                "bias": 0.30511993169784546,
                "weights": [
                    4.725492000579834,
                    1.7392607927322388,
                    1.65595281124115
                ]
            }
        ],
        [
            {
                "bias": -0.9619792699813843,
                "weights": [
                    2.260408401489258,
                    0.02103469707071781,
                    5.585908889770508,
                    1.8527772426605225,
                    -0.29192811250686646
                ]
            },
            {
                "bias": 2.3521807193756104,
                "weights": [
                    1.8603421449661255,
                    -0.9413896203041077,
                    2.184577703475952,
                    -3.617602825164795,
                    -4.141140937805176
                ]
            }
        ]
    ],
    "random": 0.009999999776482582,
    "score": 4259
}