{
    "layers": [
        [
            {
                "bias": 0.93033766746521,
                "weights": [
                    0.870703935623169,
                    1.7250940799713135,
                    -0.020688220858573914,
                    2.41764235496521,
                    4.9344329833984375,
                    1.1698501110076904,
                    -0.42282959818840027,
                    -0.0017184317111968994,
                    0.9586909413337708,
                    -0.8140271902084351,
                    1.1716806888580322,
                    1.0956695079803467,
                    1.4228129386901855,
                    -1.0110622644424438,
                    0.7360701560974121,
                    1.007212519645691,
                    -0.013304919004440308,
                    1.4916926622390747,
                    -0.3980450928211212,
                    1.7713422775268555,
                    4.064855575561523,
                    2.1425089836120605,
                    0.1339091658592224,
                    0.23169559240341187,
                    1.328904628753662,
                    -0.8530724048614502,
                    1.33611261844635,
                    1.2161414623260498,
                    1.4595149755477905,
                    -1.0415589809417725,
                    0.5475568175315857,
                    1.6093724966049194,
                    0.2762391269207001,
                    2.0611608028411865,
                    -0.0654391348361969,
                    2.3163950443267822,
                    4.401246070861816,
                    1.2979599237442017,
                    -0.4442407488822937,
                    0.25805723667144775,
                    1.3540743589401245,
                    -0.7800033688545227,
                    1.4254568815231323,
                    1.2427350282669067,
                    1.6028608083724976,
                    -1.0619843006134033,
                    1.5419601202011108,
                    1.868709683418274,
                    1.4965651035308838,
                    -0.32178327441215515,
                    -1.0164916515350342,
                    2.7144570350646973,
                    2.2415127754211426,
                    0.8898189067840576,
                    2.4101498126983643,
                    0.680891215801239,
                    0.45496317744255066,
                    0.6539113521575928,
                    0.867180347442627,
                    1.5787713527679443
                ]
            },
            {
                "bias": 2.6159424781799316,
                "weights": [
                    3.1376583576202393,
                    5.928555488586426,
                    -1.3234851360321045,
                    -1.0761067867279053,
                    1.8814036846160889,
                    -0.8684013485908508,
                    2.9893639087677,
                    0.5703369975090027,
                    -0.05942806601524353,
                    1.4392589330673218,
                    0.5088822245597839,
                    2.793814182281494,
                    0.4041099548339844,
                    1.048584222793579,
                    0.35534361004829407,
                    2.4753711223602295,
                    3.441474676132202,
                    5.904698371887207,
                    -0.684294581413269,
                    -1.155243992805481,
                    1.9705846309661865,
                    -0.3526151478290558,
                    2.999932289123535,
                    0.8292936086654663,
                    0.06636787950992584,
                    1.4097458124160767,
                    0.8985693454742432,
                    2.694051504135132,
                    -0.045012518763542175,
                    1.1057040691375732,
                    -0.0004737973213195801,
                    2.418125867843628,
                    2.7681870460510254,
                    6.082370758056641,
                    -1.2801941633224487,
                    -1.2263332605361938,
                    2.2267980575561523,
                    -0.6507781744003296,
                    2.686492443084717,
                    0.5858988761901855,
                    -0.40769708156585693,
                    1.3791254758834839,
                    0.22863562405109406,
                    2.6334290504455566,
                    -0.2662199139595032,
                    1.6525770425796509,
                    0.8319209814071655,
                    2.500734806060791,
                    1.3465238809585571,
                    0.46727973222732544,
                    -0.10605320334434509,
                    2.3714795112609863,
                    2.86606502532959,
                    0.11595818400382996,
                    1.751705288887024,
                    0.7489165663719177,
                    0.25299739837646484,
                    0.6085166931152344,
                    1.1539661884307861,
                    1.5782876014709473
                ]
            },
            {
                "bias": 2.0223991870880127,
                "weights": [
                    1.4823267459869385,
                    -0.10900071263313293,
                    0.33124446868896484,
                    2.633380889892578,
                    2.1024234294891357,
                    0.289776086807251,
                    2.134181261062622,
                    0.5711864829063416,
                    0.6026316285133362,
                    0.7733439803123474,
                    0.8160451650619507,
                    1.6573655605316162,
                    0.2995847165584564,
                    0.5439160466194153,
                    0.558295488357544,
                    1.6277703046798706,
                    1.3641304969787598,
                    0.48192495107650757,
                    0.07927855849266052,
                    2.986769676208496,
                    2.1968207359313965,
                    0.650007963180542,
                    1.9749417304992676,
                    0.6796237230300903,
                    0.3340178430080414,
                    0.7272719144821167,
                    0.9090090394020081,
                    1.649593472480774,
                    0.2669176757335663,
                    1.1722841262817383,
                    0.3684844374656677,
                    1.2526909112930298,
                    0.9706575870513916,
                    -0.06321263313293457,
                    -0.460541695356369,
                    2.9755563735961914,
                    2.2252674102783203,
                    0.20166029036045074,
                    2.0478246212005615,
                    0.4682146906852722,
                    0.23374798893928528,
                    0.9101861119270325,
                    0.9271241426467896,
                    1.2274675369262695,
                    -0.0007591098546981812,
                    0.6987159252166748,
                    1.1713757514953613,
                    1.366817831993103,
                    1.088015079498291,
                    -0.0122871994972229,
                    0.006974130868911743,
                    2.6873111724853516,
                    2.1364247798919678,
                    0.509936511516571,
                    2.3680169582366943,
                    0.6107583045959473,
                    -0.0040479302406311035,
                    0.8233422040939331,
                    0.561895489692688,
                    1.4570045471191406
                ]
            }
        ],
        [
            {
                "bias": 3.610072612762451,
                "weights": [
                    -0.31131336092948914,
                    1.2374539375305176,
                    3.5502445697784424
                ]
            },
            {
                "bias": 1.441185712814331,
                "weights": [
                    0.9996644258499146,
                    3.143883228302002,
                    0.12524496018886566
                ]
            },
            {
                "bias": 1.5834107398986816,
                "weights": [
                    1.9098633527755737,
                    -0.05446156859397888,
                    0.46293318271636963
                ]
            },
            {
                "bias": -1.1725698709487915,
                "weights": [
                    -0.009285151958465576,
                    3.9643890857696533,
                    0.7201974391937256
                ]
            },
            {
                "bias": 0.5619648694992065,
                "weights": [
                    3.1296186447143555,
                    1.8316608667373657,
                    0.7749800682067871
                ]
            }
        ],
        [
            {
                "bias": -0.00766831636428833,
                "weights": [
                    0.7136350274085999,
                    -0.6627084016799927,
                    5.003756999969482,
                    2.348572015762329,
                    -0.419691264629364
                ]
            },
            {
                "bias": 0.989514946937561,
                "weights": [
                    3.4695239067077637,
                    -0.7213490009307861,
                    1.6764103174209595,
                    -3.948472499847412,
                    -3.236276149749756
                ]
            }
        ]
    ],
    "random": 0.0,
    "score": 1270
}